<?xml version="1.0"?>
<opencv_storage>
<cascade>
  <stageType>BOOST</stageType>
  <featureType>LBP</featureType>
  <height>95</height>
  <width>80</width>
  <stageParams>
    <boostType>GAB</boostType>
    <minHitRate>9.9500000476837158e-01</minHitRate>
    <maxFalseAlarm>5.0000000000000000e-01</maxFalseAlarm>
    <weightTrimRate>9.4999999999999996e-01</weightTrimRate>
    <maxDepth>1</maxDepth>
    <maxWeakCount>100</maxWeakCount></stageParams>
  <featureParams>
    <maxCatCount>256</maxCatCount>
    <featSize>1</featSize></featureParams>
  <stageNum>20</stageNum>
  <stages>
    <!-- stage 0 -->
    <_>
      <maxWeakCount>2</maxWeakCount>
      <stageThreshold>9.3535862863063812e-02</stageThreshold>
      <weakClassifiers>
        <_>
          <internalNodes>
            0 -1 2 -805306649 33620483 131072 147714 -2147352576
            33751040 -1811838976 -1069297009</internalNodes>
          <leafValues>
            -8.6116319894790649e-01 9.8800599575042725e-01</leafValues></_>
        <_>
          <internalNodes>
            0 -1 3 -126 -4114 -70144 -286265854 -177 -1 -177 -142614961</internalNodes>
          <leafValues>
            -8.6659234762191772e-01 9.5469909906387329e-01</leafValues></_></weakClassifiers></_>
    <!-- stage 1 -->
    <_>
      <maxWeakCount>2</maxWeakCount>
      <stageThreshold>6.7375943064689636e-02</stageThreshold>
      <weakClassifiers>
        <_>
          <internalNodes>
            0 -1 18 1380835456 285278464 2 65536 128 0 8388736 -99618781</internalNodes>
          <leafValues>
            -9.0448904037475586e-01 9.9556541442871094e-01</leafValues></_>
        <_>
          <internalNodes>
            0 -1 15 -805051774 1073741824 0 1073741824 32768 1073741824
            100352 -1027505789</internalNodes>
          <leafValues>
            -9.2818945646286011e-01 9.8412972688674927e-01</leafValues></_></weakClassifiers></_>
    <!-- stage 2 -->
    <_>
      <maxWeakCount>2</maxWeakCount>
      <stageThreshold>-1.6201358288526535e-02</stageThreshold>
      <weakClassifiers>
        <_>
          <internalNodes>
            0 -1 6 -87823424 -968433534 1208060352 -851132414 -804667072
            -402651136 -1072965493 -70264889</internalNodes>
          <leafValues>
            -9.3790149688720703e-01 8.7039566040039063e-01</leafValues></_>
        <_>
          <internalNodes>
            0 -1 9 -395842833 -1392574465 1761542143 587202559
            -452989067 402325247 -419564172 -989855745</internalNodes>
          <leafValues>
            -8.4188777208328247e-01 9.2170011997222900e-01</leafValues></_></weakClassifiers></_>
    <!-- stage 3 -->
    <_>
      <maxWeakCount>2</maxWeakCount>
      <stageThreshold>6.5833412110805511e-02</stageThreshold>
      <weakClassifiers>
        <_>
          <internalNodes>
            0 -1 35 1694364919 1979710975 -50332196 905969663 2096971518
            360579071 1090425874 15643570</internalNodes>
          <leafValues>
            -8.9625358581542969e-01 9.8086827993392944e-01</leafValues></_>
        <_>
          <internalNodes>
            0 -1 12 311456 276856832 264 289476928 32904 0 -1996289909
            -1679326550</internalNodes>
          <leafValues>
            -8.9082789421081543e-01 9.6208703517913818e-01</leafValues></_></weakClassifiers></_>
    <!-- stage 4 -->
    <_>
      <maxWeakCount>3</maxWeakCount>
      <stageThreshold>-7.3393946886062622e-01</stageThreshold>
      <weakClassifiers>
        <_>
          <internalNodes>
            0 -1 48 -49 -268500993 -16777334 -24969217 -830473152 131075
            1650640896 -1024987449</internalNodes>
          <leafValues>
            -7.6268118619918823e-01 9.5833331346511841e-01</leafValues></_>
        <_>
          <internalNodes>
            0 -1 41 -33554433 -34603009 -17 -671088641 -1 -33554433
            2147467183 1166794143</internalNodes>
          <leafValues>
            -7.7758496999740601e-01 9.1400879621505737e-01</leafValues></_>
        <_>
          <internalNodes>
            0 -1 45 -290461184 -2113559934 1073775235 1074184331
            -1064632319 -1031757790 -805205498 -11535705</internalNodes>
          <leafValues>
            -9.1468781232833862e-01 8.1313973665237427e-01</leafValues></_></weakClassifiers></_>
    <!-- stage 5 -->
    <_>
      <maxWeakCount>3</maxWeakCount>
      <stageThreshold>-6.9595479965209961e-01</stageThreshold>
      <weakClassifiers>
        <_>
          <internalNodes>
            0 -1 17 -655378 -421331202 -17105248 -1594691858 -129
            -185073668 -524481 -151000097</internalNodes>
          <leafValues>
            -7.7272725105285645e-01 9.0476191043853760e-01</leafValues></_>
        <_>
          <internalNodes>
            0 -1 26 -205128721 -682295101 -1157431209 -615917433
            -45233781 -1710716927 -1391623426 -11146518</internalNodes>
          <leafValues>
            -8.0271953344345093e-01 8.7278699874877930e-01</leafValues></_>
        <_>
          <internalNodes>
            0 -1 50 -402659065 -958005261 -134238412 1895563263
            2138537813 2004287351 -17303753 -134219913</internalNodes>
          <leafValues>
            -7.7907139062881470e-01 8.7949198484420776e-01</leafValues></_></weakClassifiers></_>
    <!-- stage 6 -->
    <_>
      <maxWeakCount>3</maxWeakCount>
      <stageThreshold>-8.4471589326858521e-01</stageThreshold>
      <weakClassifiers>
        <_>
          <internalNodes>
            0 -1 32 -275010934 -1011186689 867150722 -1079001157
            -536870930 -134283267 -1209024609 -5243985</internalNodes>
          <leafValues>
            -8.2335621118545532e-01 8.9717596769332886e-01</leafValues></_>
        <_>
          <internalNodes>
            0 -1 42 1400624087 1502730497 185811011 -619589349
            -100613733 1803796489 -251428136 1164301277</internalNodes>
          <leafValues>
            -8.8030797243118286e-01 8.0163520574569702e-01</leafValues></_>
        <_>
          <internalNodes>
            0 -1 16 -273158161 -1561923738 -16777490 -1427198258 -137
            -404619265 -9 -16777345</internalNodes>
          <leafValues>
            -7.9928416013717651e-01 8.5894829034805298e-01</leafValues></_></weakClassifiers></_>
    <!-- stage 7 -->
    <_>
      <maxWeakCount>3</maxWeakCount>
      <stageThreshold>-7.5629913806915283e-01</stageThreshold>
      <weakClassifiers>
        <_>
          <internalNodes>
            0 -1 33 -582616119 -539099169 -10616833 -547356673 -2228273
            -2236161 -10485793 -606082049</internalNodes>
          <leafValues>
            -8.1743592023849487e-01 8.3999997377395630e-01</leafValues></_>
        <_>
          <internalNodes>
            0 -1 4 -1048777 -521670914 -17 -487592193 2147483477
            1157103615 -33554433 -452985345</internalNodes>
          <leafValues>
            -6.9466376304626465e-01 8.7822127342224121e-01</leafValues></_>
        <_>
          <internalNodes>
            0 -1 40 -239863817 -1617972645 21070099 -1712897841
            361466083 -1192509245 -366548482 1069484703</internalNodes>
          <leafValues>
            -8.1708455085754395e-01 7.9975700378417969e-01</leafValues></_></weakClassifiers></_>
    <!-- stage 8 -->
    <_>
      <maxWeakCount>3</maxWeakCount>
      <stageThreshold>-8.4252893924713135e-01</stageThreshold>
      <weakClassifiers>
        <_>
          <internalNodes>
            0 -1 36 -2099203 -111149057 -61746 2147441354 -33554497 -17
            -28946 -1111414</internalNodes>
          <leafValues>
            -7.9481863975524902e-01 8.1324040889739990e-01</leafValues></_>
        <_>
          <internalNodes>
            0 -1 44 -115738224 -1743732480 16995728 -1852320828
            -703858433 -1172176710 194641840 -2109219</internalNodes>
          <leafValues>
            -8.3240503072738647e-01 7.0962113142013550e-01</leafValues></_>
        <_>
          <internalNodes>
            0 -1 39 487068671 1070694867 -1722952289 -551714665
            347617023 -70741888 -1451018017 -1365638166</internalNodes>
          <leafValues>
            -7.5733143091201782e-01 8.1048488616943359e-01</leafValues></_></weakClassifiers></_>
    <!-- stage 9 -->
    <_>
      <maxWeakCount>3</maxWeakCount>
      <stageThreshold>-7.5882512331008911e-01</stageThreshold>
      <weakClassifiers>
        <_>
          <internalNodes>
            0 -1 19 -746327585 1397837953 -2097020729 288047391 46166519
            344099 445498027 469749743</internalNodes>
          <leafValues>
            -8.0871415138244629e-01 7.9575049877166748e-01</leafValues></_>
        <_>
          <internalNodes>
            0 -1 14 -419434753 -1400897537 -353374465 -1493303297
            2130161535 -587202561 -168827785 -335544321</internalNodes>
          <leafValues>
            -7.2687000036239624e-01 8.4863263368606567e-01</leafValues></_>
        <_>
          <internalNodes>
            0 -1 47 -69207245 -1828204541 545835278 -1576296433
            1929617427 1879146498 17271603 -1147410025</internalNodes>
          <leafValues>
            -7.7651035785675049e-01 7.7675902843475342e-01</leafValues></_></weakClassifiers></_>
    <!-- stage 10 -->
    <_>
      <maxWeakCount>3</maxWeakCount>
      <stageThreshold>-8.6623662710189819e-01</stageThreshold>
      <weakClassifiers>
        <_>
          <internalNodes>
            0 -1 20 -983056 -40665161 -101318675 -294925 -138938369
            -524289 -131075 -1051729</internalNodes>
          <leafValues>
            -7.7686798572540283e-01 8.1447643041610718e-01</leafValues></_>
        <_>
          <internalNodes>
            0 -1 51 -94372993 -2117365549 -1878949709 1342915861
            -1010480895 51019914 -897080761 -202902745</internalNodes>
          <leafValues>
            -7.3577725887298584e-01 7.9143953323364258e-01</leafValues></_>
        <_>
          <internalNodes>
            0 -1 27 -249433633 1368518929 1359172831 -116010605
            -629018497 -79432246 -1043606849 256838154</internalNodes>
          <leafValues>
            -8.8080817461013794e-01 6.8844872713088989e-01</leafValues></_></weakClassifiers></_>
    <!-- stage 11 -->
    <_>
      <maxWeakCount>3</maxWeakCount>
      <stageThreshold>-6.2473803758621216e-01</stageThreshold>
      <weakClassifiers>
        <_>
          <internalNodes>
            0 -1 22 -117189633 -77 -524289 -536887297 -537395253
            -2097153 -1074282497 973058815</internalNodes>
          <leafValues>
            -6.8303984403610229e-01 8.6071157455444336e-01</leafValues></_>
        <_>
          <internalNodes>
            0 -1 13 -268435465 -453054849 -16846866 1761537743 -131081
            1952841719 -524301 -454039553</internalNodes>
          <leafValues>
            -7.2344255447387695e-01 8.4764409065246582e-01</leafValues></_>
        <_>
          <internalNodes>
            0 -1 52 -670317649 5488642 1073971331 -1039220729 1215250497
            692234 1075511332 -423112413</internalNodes>
          <leafValues>
            -6.8951094150543213e-01 7.8174436092376709e-01</leafValues></_></weakClassifiers></_>
    <!-- stage 12 -->
    <_>
      <maxWeakCount>3</maxWeakCount>
      <stageThreshold>-6.9883823394775391e-01</stageThreshold>
      <weakClassifiers>
        <_>
          <internalNodes>
            0 -1 28 -2113601 -140521307 -131073 -536870913 -131074
            -2228225 -1 -11681843</internalNodes>
          <leafValues>
            -7.0666664838790894e-01 8.4592592716217041e-01</leafValues></_>
        <_>
          <internalNodes>
            0 -1 1 -976238609 -104528767 -1055850089 25232129 -628503329
            -124080000 -796216609 728697775</internalNodes>
          <leafValues>
            -7.7883493900299072e-01 7.0898228883743286e-01</leafValues></_>
        <_>
          <internalNodes>
            0 -1 29 918306301 -1074790401 2147463099 -1074053123
            1062682623 -1 -1073889601 -1073928707</internalNodes>
          <leafValues>
            -6.9435971975326538e-01 7.8666335344314575e-01</leafValues></_></weakClassifiers></_>
    <!-- stage 13 -->
    <_>
      <maxWeakCount>3</maxWeakCount>
      <stageThreshold>-6.8353813886642456e-01</stageThreshold>
      <weakClassifiers>
        <_>
          <internalNodes>
            0 -1 21 -134742025 -17 -786433 -134742017 -25690133 -1
            -252184585 -791284235</internalNodes>
          <leafValues>
            -7.2227770090103149e-01 8.0271625518798828e-01</leafValues></_>
        <_>
          <internalNodes>
            0 -1 8 -497029409 -2142535615 -2147483063 -2147409061
            -536615421 -2130116029 -268197610 -522190853</internalNodes>
          <leafValues>
            -7.4411654472351074e-01 7.6958811283111572e-01</leafValues></_>
        <_>
          <internalNodes>
            0 -1 53 -402657533 133791743 -92 -369098755 -8388745
            -4718601 -1208008921 -134223897</internalNodes>
          <leafValues>
            -6.8585538864135742e-01 7.8285616636276245e-01</leafValues></_></weakClassifiers></_>
    <!-- stage 14 -->
    <_>
      <maxWeakCount>3</maxWeakCount>
      <stageThreshold>-7.5486797094345093e-01</stageThreshold>
      <weakClassifiers>
        <_>
          <internalNodes>
            0 -1 24 -235278096 -34228225 -70418255 -2050 -75497989
            -35127297 -1878259997 -16385</internalNodes>
          <leafValues>
            -7.6505428552627563e-01 8.4715211391448975e-01</leafValues></_>
        <_>
          <internalNodes>
            0 -1 5 -291311874 -133124 -196609 -64274 -73732 -2
            -268503049 -1073856268</internalNodes>
          <leafValues>
            -7.3995065689086914e-01 8.3083117008209229e-01</leafValues></_>
        <_>
          <internalNodes>
            0 -1 37 -112547158 -506851191 1073763341 -251465663
            -2145853254 -337928174 -1040129793 -208946273</internalNodes>
          <leafValues>
            -7.9852795600891113e-01 7.5013697147369385e-01</leafValues></_></weakClassifiers></_>
    <!-- stage 15 -->
    <_>
      <maxWeakCount>3</maxWeakCount>
      <stageThreshold>-6.4366382360458374e-01</stageThreshold>
      <weakClassifiers>
        <_>
          <internalNodes>
            0 -1 38 329921459 867221503 1073691581 -1073774593 -2561
            -1091323905 -1073774593 -1073741825</internalNodes>
          <leafValues>
            -6.3228696584701538e-01 8.5992217063903809e-01</leafValues></_>
        <_>
          <internalNodes>
            0 -1 11 -134222145 644739071 -1 -353374225 -137 2147450878
            -129 -8388609</internalNodes>
          <leafValues>
            -6.0649013519287109e-01 7.9745000600814819e-01</leafValues></_>
        <_>
          <internalNodes>
            0 -1 23 -202247247 -71755775 1109475721 -616753021
            -1549145157 -636936157 -1967537221 -106310661</internalNodes>
          <leafValues>
            -8.0882680416107178e-01 6.7804467678070068e-01</leafValues></_></weakClassifiers></_>
    <!-- stage 16 -->
    <_>
      <maxWeakCount>3</maxWeakCount>
      <stageThreshold>-7.1512913703918457e-01</stageThreshold>
      <weakClassifiers>
        <_>
          <internalNodes>
            0 -1 43 -821221 287658233 1863285508 1162338141 -321
            1065336703 -4194385 -603979777</internalNodes>
          <leafValues>
            -6.5818184614181519e-01 8.6461538076400757e-01</leafValues></_>
        <_>
          <internalNodes>
            0 -1 0 -1374763522 -615300653 1494323485 -46677758
            -1866282306 -1187937531 -1975989829 -67778174</internalNodes>
          <leafValues>
            -7.3364996910095215e-01 7.4849659204483032e-01</leafValues></_>
        <_>
          <internalNodes>
            0 -1 7 -868170042 -548028131 -1073692586 1494369744
            291588255 -1190641520 197728431 -7355397</internalNodes>
          <leafValues>
            -7.9529160261154175e-01 6.7670267820358276e-01</leafValues></_></weakClassifiers></_>
    <!-- stage 17 -->
    <_>
      <maxWeakCount>2</maxWeakCount>
      <stageThreshold>-1.8381908535957336e-02</stageThreshold>
      <weakClassifiers>
        <_>
          <internalNodes>
            0 -1 41 -1055522817 -1 -17 -708841473 -1 -8193 -1 1205592031</internalNodes>
          <leafValues>
            -7.2616630792617798e-01 7.8925037384033203e-01</leafValues></_>
        <_>
          <internalNodes>
            0 -1 10 -750005537 -503083773 84099331 -364658365
            -1694381919 -83361791 553765443 -187700321</internalNodes>
          <leafValues>
            -7.1741473674774170e-01 7.0778441429138184e-01</leafValues></_></weakClassifiers></_>
    <!-- stage 18 -->
    <_>
      <maxWeakCount>3</maxWeakCount>
      <stageThreshold>-8.2929879426956177e-01</stageThreshold>
      <weakClassifiers>
        <_>
          <internalNodes>
            0 -1 34 -570576692 -102763011 2147456949 -32769 -352321537
            -1 -1073742835 -543444993</internalNodes>
          <leafValues>
            -7.3581010103225708e-01 7.7777779102325439e-01</leafValues></_>
        <_>
          <internalNodes>
            0 -1 49 1942485815 -2144239609 16843158 1388429907
            -1610258317 -905838590 -1332805629 -68953785</internalNodes>
          <leafValues>
            -7.9727083444595337e-01 6.6391038894653320e-01</leafValues></_>
        <_>
          <internalNodes>
            0 -1 31 -778570763 -817633981 34198545 1363783683 -805129333
            -1828486262 -922619909 -335574102</internalNodes>
          <leafValues>
            -7.3217344284057617e-01 7.0378208160400391e-01</leafValues></_></weakClassifiers></_>
    <!-- stage 19 -->
    <_>
      <maxWeakCount>3</maxWeakCount>
      <stageThreshold>-6.8479591608047485e-01</stageThreshold>
      <weakClassifiers>
        <_>
          <internalNodes>
            0 -1 25 -3935489 -1 -272510147 -8193 -81665 -1 -41987843
            -68222721</internalNodes>
          <leafValues>
            -6.3753449916839600e-01 8.3244478702545166e-01</leafValues></_>
        <_>
          <internalNodes>
            0 -1 30 285219828 -1614577215 486609373 -707198817
            -364308226 -401473374 -922723905 -227123</internalNodes>
          <leafValues>
            -7.7383488416671753e-01 6.8291848897933960e-01</leafValues></_>
        <_>
          <internalNodes>
            0 -1 46 1392630687 -1650867239 268472700 -36073128
            -2139064143 -1727348567 -2004760428 -90062652</internalNodes>
          <leafValues>
            -6.7571771144866943e-01 7.2657346725463867e-01</leafValues></_></weakClassifiers></_></stages>
  <features>
    <_>
      <rect>
        0 3 10 6</rect></_>
    <_>
      <rect>
        0 5 15 11</rect></_>
    <_>
      <rect>
        0 30 5 14</rect></_>
    <_>
      <rect>
        0 39 11 11</rect></_>
    <_>
      <rect>
        0 44 4 14</rect></_>
    <_>
      <rect>
        1 3 12 8</rect></_>
    <_>
      <rect>
        1 13 13 20</rect></_>
    <_>
      <rect>
        1 79 12 4</rect></_>
    <_>
      <rect>
        2 7 3 14</rect></_>
    <_>
      <rect>
        2 10 4 19</rect></_>
    <_>
      <rect>
        2 35 3 8</rect></_>
    <_>
      <rect>
        2 40 3 10</rect></_>
    <_>
      <rect>
        3 40 25 6</rect></_>
    <_>
      <rect>
        3 56 3 11</rect></_>
    <_>
      <rect>
        4 7 3 16</rect></_>
    <_>
      <rect>
        4 33 5 19</rect></_>
    <_>
      <rect>
        4 34 3 18</rect></_>
    <_>
      <rect>
        4 49 4 15</rect></_>
    <_>
      <rect>
        6 13 14 15</rect></_>
    <_>
      <rect>
        12 56 12 12</rect></_>
    <_>
      <rect>
        13 20 14 8</rect></_>
    <_>
      <rect>
        16 11 10 26</rect></_>
    <_>
      <rect>
        16 30 16 7</rect></_>
    <_>
      <rect>
        17 2 18 26</rect></_>
    <_>
      <rect>
        18 16 20 10</rect></_>
    <_>
      <rect>
        20 29 8 9</rect></_>
    <_>
      <rect>
        21 12 14 18</rect></_>
    <_>
      <rect>
        21 42 16 13</rect></_>
    <_>
      <rect>
        23 21 13 15</rect></_>
    <_>
      <rect>
        24 1 15 4</rect></_>
    <_>
      <rect>
        24 4 11 4</rect></_>
    <_>
      <rect>
        24 29 13 21</rect></_>
    <_>
      <rect>
        24 54 14 13</rect></_>
    <_>
      <rect>
        26 0 10 23</rect></_>
    <_>
      <rect>
        26 18 18 9</rect></_>
    <_>
      <rect>
        26 25 15 8</rect></_>
    <_>
      <rect>
        27 48 10 8</rect></_>
    <_>
      <rect>
        27 61 13 7</rect></_>
    <_>
      <rect>
        31 35 14 6</rect></_>
    <_>
      <rect>
        33 3 9 3</rect></_>
    <_>
      <rect>
        33 26 6 9</rect></_>
    <_>
      <rect>
        35 42 13 11</rect></_>
    <_>
      <rect>
        35 47 13 6</rect></_>
    <_>
      <rect>
        48 56 10 11</rect></_>
    <_>
      <rect>
        56 78 8 5</rect></_>
    <_>
      <rect>
        59 7 7 17</rect></_>
    <_>
      <rect>
        64 89 5 1</rect></_>
    <_>
      <rect>
        65 6 5 13</rect></_>
    <_>
      <rect>
        65 31 5 19</rect></_>
    <_>
      <rect>
        68 11 4 14</rect></_>
    <_>
      <rect>
        70 23 3 12</rect></_>
    <_>
      <rect>
        71 26 3 13</rect></_>
    <_>
      <rect>
        71 27 3 20</rect></_>
    <_>
      <rect>
        71 28 2 7</rect></_></features></cascade>
</opencv_storage>
